{"learner":{"attributes":{"best_iteration":"0","best_score":"0.06211172421419418"},"feature_names":[],"feature_types":[],"gradient_booster":{"model":{"gbtree_model_param":{"num_parallel_tree":"1","num_trees":"11"},"iteration_indptr":[0,1,2,3,4,5,6,7,8,9,10,11],"tree_info":[0,0,0,0,0,0,0,0,0,0,0],"trees":[{"base_weights":[2.0179087E-3,-1.2422346E-2,1.3943537E-2,-1.9289736E-2,1.6821835E-2,7.0105447E-3,3.7815228E-2,-4.565355E-3,-4.533709E-2,3.3033717E-2,-1.5805245E-3,1.5640438E-2,-1.774033E-2,5.7033706E-3,1.1033702E-2,9.101112E-3,-2.4494387E-2,1.3146073E-3,-5.329589E-2,8.146078E-4,3.7219108E-3,3.0662913E-2,5.2738637E-3,-5.280897E-3,-2.3089895E-2,-9.138584E-3,2.7528087E-2,-1.3370871E-3,4.086141E-3,-3.69663E-2,-2.7808994E-3,-5.6994394E-3,-1.1853933E-3,8.614063E-4,3.8005613E-2,-2.6853948E-3,9.205981E-3,-1.9138575E-3,1.8146068E-3,-2.49663E-2,-6.853938E-4,-1.853943E-4,-1.1853933E-3,8.146078E-4,3.3146054E-3,1.1755609E-3,-3.5805244E-3,-1.2471915E-3,-4.9138586E-3,-1.1853933E-3,4.1947566E-4,3.1460525E-4,-1.853943E-4,2.1033704E-3,4.97191E-3,-7.7809097E-4,1.4101113E-3,-6.853938E-4,-2.7780905E-3],"categories":[],"categories_nodes":[],"categories_segments":[],"categories_sizes":[],"default_left":[0,0,0,0,0,0,0,0,0,0,0,0,0,0,0,0,0,0,0,0,0,0,0,0,0,0,0,0,0,0,0,0,0,0,0,0,0,0,0,0,0,0,0,0,0,0,0,0,0,0,0,0,0,0,0,0,0,0,0],"id":0,"left_children":[1,3,5,7,9,11,13,15,17,19,-1,21,23,-1,25,27,29,-1,31,-1,-1,33,35,37,39,41,43,45,-1,47,49,-1,-1,51,53,-1,55,-1,-1,57,-1,-1,-1,-1,-1,-1,-1,-1,-1,-1,-1,-1,-1,-1,-1,-1,-1,-1,-1],"loss_changes":[1.2916687E-2,7.1527497E-3,6.5204846E-3,1.0531892E-2,4.2247297E-3,7.3261796E-3,4.0030098E-3,5.397756E-3,5.3551905E-3,2.1763286E-4,0E0,3.7315786E-3,4.7793752E-4,0E0,1.915215E-3,4.032879E-3,2.0636697E-3,0E0,7.038526E-4,0E0,0E0,2.1554967E-3,2.2685023E-3,1.645863E-3,1.1673896E-5,3.7364516E-5,5.665212E-5,4.9337232E-3,0E0,8.779112E-4,3.028858E-4,0E0,0E0,2.4443436E-5,5.446244E-4,0E0,1.3570155E-3,0E0,0E0,6.4487336E-5,0E0,0E0,0E0,0E0,0E0,0E0,0E0,0E0,0E0,0E0,0E0,0E0,0E0,0E0,0E0,0E0,0E0,0E0,0E0],"parents":[2147483647,0,0,1,1,2,2,3,3,4,4,5,5,6,6,7,7,8,8,9,9,11,11,12,12,14,14,15,15,16,16,18,18,21,21,22,22,23,23,24,24,25,25,26,26,27,27,29,29,30,30,33,33,34,34,36,36,39,39],"right_children":[2,4,6,8,10,12,14,16,18,20,-1,22,24,-1,26,28,30,-1,32,-1,-1,34,36,38,40,42,44,46,-1,48,50,-1,-1,52,54,-1,56,-1,-1,58,-1,-1,-1,-1,-1,-1,-1,-1,-1,-1,-1,-1,-1,-1,-1,-1,-1,-1,-1],"split_conditions":[-4.1261175E-1,1.0500886E0,1.0419177E0,-3.9851162E-1,1.062345E0,-2.7186447E-1,1.062345E0,-9.6151143E-1,-7.965464E-1,-8.995352E-1,-1.5805245E-3,3.2870853E-1,4.976861E-1,5.7033706E-3,1.6708605E-1,-1.0950601E0,-1.1424564E0,1.3146073E-3,1.0899754E0,8.146078E-4,3.7219108E-3,-1.018426E0,3.5801342E-1,4.567195E-1,1.6338207E0,-2.719872E-1,5.3465E-1,-7.7703726E-1,4.086141E-3,-8.8462174E-1,-4.955876E-1,-5.6994394E-3,-1.1853933E-3,-3.1726226E-1,-1.1115506E-1,-2.6853948E-3,-7.965464E-1,-1.9138575E-3,1.8146068E-3,-1.2717751E0,-6.853938E-4,-1.853943E-4,-1.1853933E-3,8.146078E-4,3.3146054E-3,1.1755609E-3,-3.5805244E-3,-1.2471915E-3,-4.9138586E-3,-1.1853933E-3,4.1947566E-4,3.1460525E-4,-1.853943E-4,2.1033704E-3,4.97191E-3,-7.7809097E-4,1.4101113E-3,-6.853938E-4,-2.7780905E-3],"split_indices":[0,3,3,1,3,4,3,0,3,0,0,0,0,0,0,0,1,0,1,0,0,1,0,0,0,0,0,1,0,0,0,0,0,0,0,0,3,0,0,1,0,0,0,0,0,0,0,0,0,0,0,0,0,0,0,0,0,0,0],"split_type":[0,0,0,0,0,0,0,0,0,0,0,0,0,0,0,0,0,0,0,0,0,0,0,0,0,0,0,0,0,0,0,0,0,0,0,0,0,0,0,0,0,0,0,0,0,0,0,0,0,0,0,0,0,0,0,0,0,0,0],"sum_hessian":[7.3E1,3.3E1,4E1,2.7E1,6E0,3.2E1,8E0,1.8E1,9E0,4E0,2E0,2.4E1,8E0,4E0,4E0,1.1E1,7E0,1E0,8E0,1E0,3E0,9E0,1.5E1,3E0,5E0,2E0,2E0,9E0,2E0,4E0,3E0,7E0,1E0,2E0,7E0,1E0,1.4E1,2E0,1E0,4E0,1E0,1E0,1E0,1E0,1E0,7E0,2E0,2E0,2E0,1E0,2E0,1E0,1E0,4E0,3E0,3E0,1.1E1,1E0,3E0],"tree_param":{"num_deleted":"0","num_feature":"5","num_nodes":"59","size_leaf_vector":"1"}},{"base_weights":[-9.0153114E-4,-1.6084617E-2,1.3485213E-2,-2.2616152E-2,8.786336E-3,4.805575E-3,5.243955E-3,-5.138412E-3,-4.238751E-2,-1.2383312E-3,2.3964787E-2,1.36521645E-2,-1.3778502E-2,-2.5817513E-2,6.608226E-3,-1.2930679E-2,-5.4042697E-2,3.8380164E-3,1.561145E-3,-1.6712472E-3,4.6726796E-3,-4.3743685E-2,5.3128176E-3,-9.973571E-3,-3.8336932E-3,-1.1007777E-2,2.9948985E-2,3.0554335E-3,-2.4606565E-3,-5.798273E-3,-1.1261225E-3,-1.7612577E-4,4.102975E-4,8.719846E-3,-2.0443043E-3,-1.0464877E-3,-5.134833E-3,-2.5511265E-3,1.4702042E-2,-3.0063689E-3,6.744365E-4,3.1102987E-3,-2.321007E-3,3.3468069E-3,7.936329E-4,1.2488783E-3,-7.9056324E-4,2.2875602E-5,3.1286497E-3,2.8490245E-3,6.853789E-5],"categories":[],"categories_nodes":[],"categories_segments":[],"categories_sizes":[],"default_left":[0,0,0,0,0,0,0,0,0,0,0,0,0,0,0,0,0,0,0,0,0,0,0,0,0,0,0,0,0,0,0,0,0,0,0,0,0,0,0,0,0,0,0,0,0,0,0,0,0,0,0],"id":1,"left_children":[1,3,5,7,9,-1,11,13,15,-1,17,19,21,23,25,27,29,-1,31,33,-1,35,37,39,-1,41,43,45,-1,-1,-1,-1,-1,47,-1,-1,-1,-1,49,-1,-1,-1,-1,-1,-1,-1,-1,-1,-1,-1,-1],"loss_changes":[1.57258E-2,5.8843056E-3,1.0289472E-2,9.457838E-3,2.867343E-3,0E0,5.1463954E-3,4.0571666E-3,3.7644152E-3,0E0,1.5548677E-3,1.1228049E-2,5.953151E-3,8.077854E-4,4.8525515E-3,1.0084439E-3,8.640867E-4,0E0,3.2561344E-5,3.2992114E-3,0E0,4.7494052E-4,2.4009673E-3,1.5462217E-3,0E0,4.3188366E-3,1.21708494E-4,4.0893038E-4,0E0,0E0,0E0,0E0,0E0,2.1006132E-3,0E0,0E0,0E0,0E0,1.1400611E-3,0E0,0E0,0E0,0E0,0E0,0E0,0E0,0E0,0E0,0E0,0E0,0E0],"parents":[2147483647,0,0,1,1,2,2,3,3,4,4,6,6,7,7,8,8,10,10,11,11,12,12,13,13,14,14,15,15,16,16,18,18,19,19,21,21,22,22,23,23,25,25,26,26,27,27,33,33,38,38],"right_children":[2,4,6,8,10,-1,12,14,16,-1,18,20,22,24,26,28,30,-1,32,34,-1,36,38,40,-1,42,44,46,-1,-1,-1,-1,-1,48,-1,-1,-1,-1,50,-1,-1,-1,-1,-1,-1,-1,-1,-1,-1,-1,-1],"split_conditions":[-4.239801E-2,1.0218792E0,2.099533E-1,-5.5872905E-1,-3.9851162E-1,4.805575E-3,1.1122941E0,-1.0950601E0,-7.7330333E-1,-1.2383312E-3,-5.1561296E-1,1.0482789E0,1.2401255E0,-1.1419036E0,-1.018426E0,3.335963E-1,1.0899754E0,3.8380164E-3,-2.719872E-1,-7.469036E-1,4.6726796E-3,6.4430696E-1,3.5801342E-1,-1.2345929E0,-3.8336932E-3,-1.0636339E0,-7.469036E-1,-6.200919E-1,-2.4606565E-3,-5.798273E-3,-1.1261225E-3,-1.7612577E-4,4.102975E-4,-7.7330333E-1,-2.0443043E-3,-1.0464877E-3,-5.134833E-3,-2.5511265E-3,1.8487844E0,-3.0063689E-3,6.744365E-4,3.1102987E-3,-2.321007E-3,3.3468069E-3,7.936329E-4,1.2488783E-3,-7.9056324E-4,2.2875602E-5,3.1286497E-3,2.8490245E-3,6.853789E-5],"split_indices":[0,2,0,1,1,0,1,0,2,0,0,2,1,0,1,1,1,0,0,2,0,0,0,0,0,0,2,0,0,0,0,0,0,2,0,0,0,0,1,0,0,0,0,0,0,0,0,0,0,0,0],"split_type":[0,0,0,0,0,0,0,0,0,0,0,0,0,0,0,0,0,0,0,0,0,0,0,0,0,0,0,0,0,0,0,0,0,0,0,0,0,0,0,0,0,0,0,0,0,0,0,0,0,0,0],"sum_hessian":[7E1,3.4E1,3.6E1,2.7E1,7E0,6E0,3E1,1.5E1,1.2E1,3E0,4E0,2.1E1,9E0,5E0,1E1,4E0,8E0,2E0,2E0,1.5E1,6E0,3E0,6E0,3E0,2E0,6E0,4E0,2E0,2E0,7E0,1E0,1E0,1E0,1E1,5E0,1E0,2E0,1E0,5E0,1E0,2E0,1E0,5E0,3E0,1E0,1E0,1E0,8E0,2E0,2E0,3E0],"tree_param":{"num_deleted":"0","num_feature":"5","num_nodes":"51","size_leaf_vector":"1"}},{"base_weights":[-4.266039E-4,-1.0718019E-2,2.4587145E-2,-2.1441167E-2,3.2684752E-3,3.205825E-2,-3.0925551E-2,-4.390657E-3,-3.706227E-2,2.1449573E-2,-7.858082E-3,-8.108596E-3,3.7260737E-2,-5.444497E-4,-4.094383E-3,-2.1851642E-2,3.4901642E-3,-4.418245E-3,-6.4361544E-4,-2.1066517E-3,3.3578796E-3,4.659074E-3,-1.6720526E-2,-1.7982662E-3,5.819768E-4,1.6869176E-2,4.2237435E-2,7.8155E-3,-4.787685E-3,-7.510364E-4,2.1980405E-3,1.7703783E-2,-1.8635133E-2,-2.2231252E-3,-4.2743087E-3,-1.6723176E-3,4.483847E-3,1.1373193E-3,4.386169E-3,1.8331588E-3,-8.8111166E-4,3.897816E-4,-6.0075523E-5,9.191394E-4,2.5876672E-3,-2.6476353E-3,-1.4763475E-4,2.429545E-4,-7.3187746E-4],"categories":[],"categories_nodes":[],"categories_segments":[],"categories_sizes":[],"default_left":[0,0,0,0,0,0,0,0,0,0,0,0,0,0,0,0,0,0,0,0,0,0,0,0,0,0,0,0,0,0,0,0,0,0,0,0,0,0,0,0,0,0,0,0,0,0,0,0,0],"id":2,"left_children":[1,3,5,7,9,11,13,15,17,19,21,23,25,-1,-1,27,-1,-1,-1,29,-1,31,33,-1,-1,35,37,39,-1,-1,41,43,45,-1,47,-1,-1,-1,-1,-1,-1,-1,-1,-1,-1,-1,-1,-1,-1],"loss_changes":[1.8540833E-2,7.719022E-3,9.700979E-3,7.561356E-3,4.8212917E-3,4.272517E-3,5.4291054E-4,1.1053892E-2,2.9865876E-3,2.6422068E-3,1.7418913E-3,5.1724364E-4,1.0126922E-3,0E0,0E0,8.867208E-3,0E0,0E0,0E0,1.09553366E-4,0E0,2.4569756E-3,5.222657E-4,0E0,0E0,5.4476135E-3,1.5285984E-4,1.2106034E-3,0E0,0E0,1.6613609E-5,1.1001143E-4,3.645491E-4,0E0,9.941991E-5,0E0,0E0,0E0,0E0,0E0,0E0,0E0,0E0,0E0,0E0,0E0,0E0,0E0,0E0],"parents":[2147483647,0,0,1,1,2,2,3,3,4,4,5,5,6,6,7,7,8,8,9,9,10,10,11,11,12,12,15,15,19,19,21,21,22,22,25,25,26,26,27,27,30,30,31,31,32,32,34,34],"right_children":[2,4,6,8,10,12,14,16,18,20,22,24,26,-1,-1,28,-1,-1,-1,30,-1,32,34,-1,-1,36,38,40,-1,-1,42,44,46,-1,48,-1,-1,-1,-1,-1,-1,-1,-1,-1,-1,-1,-1,-1,-1],"split_conditions":[1.0296612E0,-2.3593876E-1,1.0746787E0,-7.8837544E-1,3.434405E-1,-8.995352E-1,-4.782111E-1,-8.006319E-1,9.954794E-1,-4.239801E-2,-7.7611905E-1,-1.0657791E0,1.0482789E0,-5.444497E-4,-4.094383E-3,-8.8462174E-1,3.4901642E-3,-4.418245E-3,-6.4361544E-4,-7.7330333E-1,3.3578796E-3,7.599767E-1,6.4430696E-1,-1.7982662E-3,5.819768E-4,1.0500886E0,-4.846089E-1,-1.1419036E0,-4.787685E-3,-7.510364E-4,-1.9615558E-1,7.2914034E-1,1.1278688E0,-2.2231252E-3,-7.7330333E-1,-1.6723176E-3,4.483847E-3,1.1373193E-3,4.386169E-3,1.8331588E-3,-8.8111166E-4,3.897816E-4,-6.0075523E-5,9.191394E-4,2.5876672E-3,-2.6476353E-3,-1.4763475E-4,2.429545E-4,-7.3187746E-4],"split_indices":[3,0,2,3,0,0,0,3,2,0,3,0,2,0,0,0,0,0,0,2,0,0,0,0,0,3,0,0,0,0,0,0,0,0,2,0,0,0,0,0,0,0,0,0,0,0,0,0,0],"split_type":[0,0,0,0,0,0,0,0,0,0,0,0,0,0,0,0,0,0,0,0,0,0,0,0,0,0,0,0,0,0,0,0,0,0,0,0,0,0,0,0,0,0,0,0,0,0,0,0,0],"sum_hessian":[7E1,5E1,2E1,2.8E1,2.2E1,1.8E1,2E0,1.4E1,1.4E1,8E0,1.4E1,2E0,1.6E1,1E0,1E0,1E1,4E0,1.1E1,3E0,3E0,5E0,6E0,8E0,1E0,1E0,4E0,1.2E1,5E0,5E0,1E0,2E0,4E0,2E0,5E0,3E0,2E0,2E0,1E0,1.1E1,3E0,2E0,1E0,1E0,3E0,1E0,1E0,1E0,1E0,2E0],"tree_param":{"num_deleted":"0","num_feature":"5","num_nodes":"49","size_leaf_vector":"1"}},{"base_weights":[-1.4057566E-4,1.5593367E-3,-3.2403767E-2,-3.3133011E-3,2.003881E-2,-5.1722827E-4,-3.9756834E-3,-5.2405195E-3,2.5459692E-2,3.0415302E-2,2.3525613E-3,-5.700603E-4,-1.5587647E-2,3.7029386E-4,3.147763E-3,5.528778E-4,3.2566164E-2,-2.3505569E-2,2.762255E-3,-7.3378934E-3,1.0463297E-2,1.1332333E-3,-1.9660916E-2,1.39727E-2,3.588248E-3,-9.249468E-3,-3.3136935E-3,6.08631E-4,-1.7588063E-3,3.0305316E-3,1.323849E-4,-2.7364662E-3,-1.3671517E-3,-9.805888E-4,3.0764937E-3,-1.7083526E-3,3.2093227E-4],"categories":[],"categories_nodes":[],"categories_segments":[],"categories_sizes":[],"default_left":[0,0,0,0,0,0,0,0,0,0,0,0,0,0,0,0,0,0,0,0,0,0,0,0,0,0,0,0,0,0,0,0,0,0,0,0,0],"id":3,"left_children":[1,3,5,7,9,-1,-1,11,13,15,17,19,21,-1,-1,-1,23,25,-1,27,29,-1,31,33,-1,35,-1,-1,-1,-1,-1,-1,-1,-1,-1,-1,-1],"loss_changes":[4.3832515E-3,6.909722E-3,5.9530605E-4,3.5159844E-3,2.864786E-3,0E0,0E0,2.7940127E-3,4.0716352E-4,3.552232E-4,5.223327E-3,3.1383273E-3,2.1965457E-3,0E0,0E0,0E0,5.358178E-5,2.4272385E-4,0E0,3.6846558E-3,2.8614018E-3,0E0,3.6413642E-4,1.4995646E-3,0E0,3.4763518E-4,0E0,0E0,0E0,0E0,0E0,0E0,0E0,0E0,0E0,0E0,0E0],"parents":[2147483647,0,0,1,1,2,2,3,3,4,4,7,7,8,8,9,9,10,10,11,11,12,12,16,16,17,17,19,19,20,20,22,22,23,23,25,25],"right_children":[2,4,6,8,10,-1,-1,12,14,16,18,20,22,-1,-1,-1,24,26,-1,28,30,-1,32,34,-1,36,-1,-1,-1,-1,-1,-1,-1,-1,-1,-1,-1],"split_conditions":[1.0827724E0,1.0419177E0,-4.782111E-1,1.0482789E0,1.0664304E0,-5.1722827E-4,-3.9756834E-3,-7.469036E-1,-1.9615558E-1,-8.995352E-1,1.0746014E0,-4.239801E-2,-1.1419036E0,3.7029386E-4,3.147763E-3,5.528778E-4,1.0500886E0,5.3465E-1,2.762255E-3,-8.8462174E-1,3.434405E-1,1.1332333E-3,-5.325623E-1,-4.955876E-1,3.588248E-3,-1.0657791E0,-3.3136935E-3,6.08631E-4,-1.7588063E-3,3.0305316E-3,1.323849E-4,-2.7364662E-3,-1.3671517E-3,-9.805888E-4,3.0764937E-3,-1.7083526E-3,3.2093227E-4],"split_indices":[3,3,0,2,3,0,0,2,0,0,3,0,0,0,0,0,3,0,0,0,0,0,0,0,0,0,0,0,0,0,0,0,0,0,0,0,0],"split_type":[0,0,0,0,0,0,0,0,0,0,0,0,0,0,0,0,0,0,0,0,0,0,0,0,0,0,0,0,0,0,0,0,0,0,0,0,0],"sum_hessian":[7.8E1,7.5E1,3E0,6E1,1.5E1,1E0,2E0,5.7E1,3E0,9E0,6E0,4E1,1.7E1,1E0,2E0,1E0,8E0,3E0,3E0,2.5E1,1.5E1,2E0,1.5E1,2E0,6E0,2E0,1E0,1.1E1,1.4E1,4E0,1.1E1,5E0,1E1,1E0,1E0,1E0,1E0],"tree_param":{"num_deleted":"0","num_feature":"5","num_nodes":"37","size_leaf_vector":"1"}},{"base_weights":[-1.1625029E-4,-6.451097E-3,2.2854835E-2,-1.5180661E-2,5.6791543E-3,2.9299665E-2,-3.6908805E-3,-1.0898511E-4,-2.5725385E-2,8.892827E-3,-2.085205E-3,3.5822246E-2,9.090054E-3,-1.7839473E-2,2.9459994E-3,-3.8111724E-2,-9.527874E-3,2.0768268E-2,3.4798314E-3,3.9361764E-2,2.1353364E-5,-1.8954137E-2,3.410423E-3,1.5226769E-2,-4.242143E-3,-4.337046E-3,7.237792E-4,5.346441E-3,-2.0335158E-2,-1.2144744E-3,3.7558943E-3,-8.9093E-3,1.3043153E-2,1.0388275E-3,4.5306603E-3,3.048867E-4,-3.1480074E-3,2.6000172E-3,6.033376E-4,-1.5600343E-3,2.4511078E-3,-1.7797947E-4,-2.9167891E-3,-6.255448E-4,2.5509993E-4,-1.3363608E-3,1.1135429E-3,1.9450457E-3,-8.3907053E-4],"categories":[],"categories_nodes":[],"categories_segments":[],"categories_sizes":[],"default_left":[0,0,0,0,0,0,0,0,0,0,0,0,0,0,0,0,0,0,0,0,0,0,0,0,0,0,0,0,0,0,0,0,0,0,0,0,0,0,0,0,0,0,0,0,0,0,0,0,0],"id":4,"left_children":[1,3,5,7,9,11,-1,13,15,17,-1,19,21,23,-1,25,27,29,31,33,-1,35,-1,37,-1,-1,-1,39,41,43,-1,45,47,-1,-1,-1,-1,-1,-1,-1,-1,-1,-1,-1,-1,-1,-1,-1,-1],"loss_changes":[1.0770275E-2,6.227938E-3,7.2440794E-3,5.4007024E-3,2.3169983E-3,1.651655E-3,0E0,8.389638E-3,3.6494331E-3,1.4062091E-3,0E0,1.37801E-3,4.153928E-3,8.774271E-3,0E0,2.9371958E-3,1.7162302E-3,2.62935E-3,2.130387E-3,1.2517683E-3,0E0,9.228034E-4,0E0,3.3835182E-4,0E0,0E0,0E0,2.3895688E-3,9.314546E-4,9.1884256E-5,0E0,8.630928E-4,1.5365351E-3,0E0,0E0,0E0,0E0,0E0,0E0,0E0,0E0,0E0,0E0,0E0,0E0,0E0,0E0,0E0,0E0],"parents":[2147483647,0,0,1,1,2,2,3,3,4,4,5,5,7,7,8,8,9,9,11,11,12,12,13,13,15,15,16,16,17,17,18,18,19,19,21,21,23,23,27,27,28,28,29,29,31,31,32,32],"right_children":[2,4,6,8,10,12,-1,14,16,18,-1,20,22,24,-1,26,28,30,32,34,-1,36,-1,38,-1,-1,-1,40,42,44,-1,46,48,-1,-1,-1,-1,-1,-1,-1,-1,-1,-1,-1,-1,-1,-1,-1,-1],"split_conditions":[1.0500886E0,-2.3593876E-1,1.0827724E0,-7.8837544E-1,1.0337467E0,3.9752412E-1,-3.6908805E-3,-8.006319E-1,-7.5160617E-1,3.434405E-1,-2.085205E-3,1.0746787E0,6.811038E-1,-8.8462174E-1,2.9459994E-3,-3.4606585E-1,-5.800162E-1,-4.239801E-2,5.41693E-1,-7.6125604E-1,2.1353364E-5,5.3465E-1,3.410423E-3,-1.1775148E0,-4.242143E-3,-4.337046E-3,7.237792E-4,-1.3217239E0,-1.113929E0,-7.7330333E-1,3.7558943E-3,1.0482789E0,-7.469036E-1,1.0388275E-3,4.5306603E-3,3.048867E-4,-3.1480074E-3,2.6000172E-3,6.033376E-4,-1.5600343E-3,2.4511078E-3,-1.7797947E-4,-2.9167891E-3,-6.255448E-4,2.5509993E-4,-1.3363608E-3,1.1135429E-3,1.9450457E-3,-8.3907053E-4],"split_indices":[3,0,3,3,3,0,0,3,3,0,0,2,0,0,0,0,3,0,0,0,0,0,0,0,0,0,0,0,0,2,0,2,2,0,0,0,0,0,0,0,0,0,0,0,0,0,0,0,0],"split_type":[0,0,0,0,0,0,0,0,0,0,0,0,0,0,0,0,0,0,0,0,0,0,0,0,0,0,0,0,0,0,0,0,0,0,0,0,0,0,0,0,0,0,0,0,0,0,0,0,0],"sum_hessian":[7.2E1,5.7E1,1.5E1,3.3E1,2.4E1,1.4E1,1E0,1.4E1,1.9E1,2.2E1,2E0,1E1,4E0,9E0,5E0,1E1,9E0,6E0,1.6E1,9E0,1E0,2E0,2E0,4E0,5E0,9E0,1E0,4E0,5E0,3E0,3E0,7E0,9E0,2E0,7E0,1E0,1E0,1E0,3E0,2E0,2E0,2E0,3E0,1E0,2E0,6E0,1E0,7E0,2E0],"tree_param":{"num_deleted":"0","num_feature":"5","num_nodes":"49","size_leaf_vector":"1"}},{"base_weights":[3.9318078E-5,-5.249261E-3,1.8546887E-2,-2.1480737E-4,-2.5825225E-2,2.877996E-2,-9.721863E-3,-2.3252377E-2,3.8221374E-3,-3.4431007E-2,-8.612084E-3,3.1359436E-3,2.0286441E-5,1.4900129E-3,-3.1103233E-3,4.2646923E-4,-3.5112143E-2,2.2500046E-2,-1.5504658E-3,-1.4560323E-3,-3.9467216E-2,-1.9431313E-3,5.077839E-3,-4.2669564E-3,-2.4412274E-4,4.7647356E-4,2.4121366E-3,6.0074436E-3,-9.48384E-3,-4.3393834E-3,-1.1880369E-3,-7.7269675E-4,1.5343726E-3,-1.3798043E-3,1.1237051E-3,-2.3314727E-3,1.1629403E-3],"categories":[],"categories_nodes":[],"categories_segments":[],"categories_sizes":[],"default_left":[0,0,0,0,0,0,0,0,0,0,0,0,0,0,0,0,0,0,0,0,0,0,0,0,0,0,0,0,0,0,0,0,0,0,0,0,0],"id":5,"left_children":[1,3,5,7,9,11,13,15,17,19,21,-1,-1,-1,-1,-1,23,25,27,-1,29,-1,31,-1,-1,-1,-1,33,35,-1,-1,-1,-1,-1,-1,-1,-1],"loss_changes":[7.046748E-3,5.7954215E-3,4.9082134E-3,4.366938E-3,1.3329345E-3,8.782046E-4,3.0957016E-3,2.4341648E-3,4.048845E-3,1.2585521E-4,8.392411E-4,0E0,0E0,0E0,0E0,0E0,1.1303732E-3,1.4386E-4,1.975685E-3,0E0,2.6080292E-5,0E0,5.129186E-4,0E0,0E0,0E0,0E0,1.9158227E-3,4.943374E-3,0E0,0E0,0E0,0E0,0E0,0E0,0E0,0E0],"parents":[2147483647,0,0,1,1,2,2,3,3,4,4,5,5,6,6,7,7,8,8,9,9,10,10,16,16,17,17,18,18,20,20,22,22,27,27,28,28],"right_children":[2,4,6,8,10,12,14,16,18,20,22,-1,-1,-1,-1,-1,24,26,28,-1,30,-1,32,-1,-1,-1,-1,34,36,-1,-1,-1,-1,-1,-1,-1,-1],"split_conditions":[1.0378321E0,7.352313E-1,1.1122941E0,-8.128883E-1,1.0899754E0,1.0746787E0,1.062345E0,-8.292302E-1,-7.997031E-1,-7.469036E-1,-7.679481E-1,3.1359436E-3,2.0286441E-5,1.4900129E-3,-3.1103233E-3,4.2646923E-4,-5.619551E-1,-8.2610285E-1,-3.4940848E-1,-1.4560323E-3,9.690797E-1,-1.9431313E-3,1.1236168E0,-4.2669564E-3,-2.4412274E-4,4.7647356E-4,2.4121366E-3,-7.7330333E-1,3.7706926E-1,-4.3393834E-3,-1.1880369E-3,-7.7269675E-4,1.5343726E-3,-1.3798043E-3,1.1237051E-3,-2.3314727E-3,1.1629403E-3],"split_indices":[3,1,1,3,1,2,3,3,2,2,3,0,0,0,0,0,1,2,1,0,2,0,1,0,0,0,0,2,1,0,0,0,0,0,0,0,0],"split_type":[0,0,0,0,0,0,0,0,0,0,0,0,0,0,0,0,0,0,0,0,0,0,0,0,0,0,0,0,0,0,0,0,0,0,0,0,0],"sum_hessian":[7E1,5.5E1,1.5E1,4.5E1,1E1,1.1E1,4E0,6E0,3.9E1,6E0,4E0,1E1,1E0,2E0,2E0,2E0,4E0,8E0,3.1E1,2E0,4E0,2E0,2E0,3E0,1E0,1E0,7E0,1.6E1,1.5E1,3E0,1E0,1E0,1E0,3E0,1.3E1,9E0,6E0],"tree_param":{"num_deleted":"0","num_feature":"5","num_nodes":"37","size_leaf_vector":"1"}},{"base_weights":[2.087416E-3,3.0448902E-2,-6.0268303E-5,-3.8072467E-5,3.825149E-3,1.44121E-3,-3.257221E-3,-3.8079883E-3,2.083529E-2,2.1287126E-3,-2.0073941E-2,-1.5193612E-3,2.4775483E-2,-7.496685E-3,8.456948E-3,-2.8550489E-2,8.25505E-3,1.4711925E-2,3.1299684E-2,4.461715E-4,-4.4487314E-3,2.226232E-3,-4.9370073E-4,-3.075572E-3,-1.2417972E-3,1.128906E-3,-4.23491E-5,1.8448759E-3,3.5798948E-4,3.9879084E-4,3.5186994E-3],"categories":[],"categories_nodes":[],"categories_segments":[],"categories_sizes":[],"default_left":[0,0,0,0,0,0,0,0,0,0,0,0,0,0,0,0,0,0,0,0,0,0,0,0,0,0,0,0,0,0,0],"id":6,"left_children":[1,3,5,-1,-1,7,-1,9,11,13,15,-1,17,19,21,23,25,27,29,-1,-1,-1,-1,-1,-1,-1,-1,-1,-1,-1,-1],"loss_changes":[4.326553E-3,1.2173178E-3,3.3176136E-3,0E0,0E0,6.696559E-3,0E0,5.064169E-3,2.3638816E-3,2.4389585E-3,3.5975343E-3,0E0,3.9305817E-4,7.276069E-3,4.5477143E-3,9.411015E-6,1.1010395E-4,2.2514525E-4,6.0286326E-4,0E0,0E0,0E0,0E0,0E0,0E0,0E0,0E0,0E0,0E0,0E0,0E0],"parents":[2147483647,0,0,1,1,2,2,5,5,7,7,8,8,9,9,10,10,12,12,13,13,14,14,15,15,16,16,17,17,18,18],"right_children":[2,4,6,-1,-1,8,-1,10,12,14,16,-1,18,20,22,24,26,28,30,-1,-1,-1,-1,-1,-1,-1,-1,-1,-1,-1,-1],"split_conditions":[-1.5163459E0,-8.006319E-1,1.0827724E0,-3.8072467E-5,3.825149E-3,1.0419177E0,-3.257221E-3,7.352313E-1,-1.0657791E0,-3.4606585E-1,1.395421E0,-1.5193612E-3,8.227307E-1,-4.7400975E-1,3.6607298E-1,3.5801342E-1,1.3690126E0,2.98271E-1,-8.995352E-1,4.461715E-4,-4.4487314E-3,2.226232E-3,-4.9370073E-4,-3.075572E-3,-1.2417972E-3,1.128906E-3,-4.23491E-5,1.8448759E-3,3.5798948E-4,3.9879084E-4,3.5186994E-3],"split_indices":[1,3,3,0,0,3,0,1,0,0,1,0,1,0,0,0,0,1,0,0,0,0,0,0,0,0,0,0,0,0,0],"split_type":[0,0,0,0,0,0,0,0,0,0,0,0,0,0,0,0,0,0,0,0,0,0,0,0,0,0,0,0,0,0,0],"sum_hessian":[7E1,4E0,6.6E1,1E0,3E0,6.4E1,2E0,5.1E1,1.3E1,3.8E1,1.3E1,1E0,1.2E1,1.5E1,2.3E1,1E1,3E0,6E0,6E0,1.2E1,3E0,1.1E1,1.2E1,8E0,2E0,2E0,1E0,4E0,2E0,1E0,5E0],"tree_param":{"num_deleted":"0","num_feature":"5","num_nodes":"31","size_leaf_vector":"1"}},{"base_weights":[2.8169076E-3,-1.3194402E-2,1.1293675E-2,-4.77223E-3,-2.450822E-2,5.8010095E-3,2.436785E-2,-1.5507117E-2,6.5591857E-3,-2.797392E-2,-7.0969462E-3,1.5067533E-2,-2.7581784E-3,3.155678E-2,-1.0114173E-2,2.0609299E-2,-3.0980805E-2,-9.940341E-3,1.844697E-3,-4.505098E-4,-3.0683024E-2,-1.443392E-3,3.7885012E-4,2.1447113E-2,-1.9726356E-2,-3.6916335E-3,3.8188621E-3,8.4236115E-3,3.9178766E-3,-1.449734E-4,-1.3721526E-3,2.6610554E-3,4.3033957E-4,-4.0415563E-3,8.0964866E-4,-2.7077596E-4,-1.5819044E-3,-1.153924E-3,-3.6032689E-3,2.7142882E-2,9.328942E-3,-2.5254488E-3,-4.3350458E-4,8.3655715E-3,-1.867207E-3,-6.627699E-3,2.6788772E-3,1.1102305E-3,3.3312787E-3,1.4950144E-3,-9.3885366E-4,-6.263852E-4,1.7189013E-3,-1.0347575E-3,4.0602685E-5],"categories":[],"categories_nodes":[],"categories_segments":[],"categories_sizes":[],"default_left":[0,0,0,0,0,0,0,0,0,0,0,0,0,0,0,0,0,0,0,0,0,0,0,0,0,0,0,0,0,0,0,0,0,0,0,0,0,0,0,0,0,0,0,0,0,0,0,0,0,0,0,0,0,0,0],"id":7,"left_children":[1,3,5,7,9,11,13,15,17,19,21,23,25,27,29,31,33,35,-1,-1,37,-1,-1,39,41,-1,43,45,-1,-1,-1,-1,-1,-1,-1,-1,-1,-1,-1,47,49,-1,-1,51,-1,53,-1,-1,-1,-1,-1,-1,-1,-1,-1],"loss_changes":[9.378255E-3,2.1699276E-3,3.0901846E-3,1.9263361E-3,4.0489295E-4,2.658918E-3,3.5417248E-3,5.1093255E-3,1.7525116E-3,3.704056E-4,2.9428164E-4,3.9746E-3,4.1848505E-3,1.6095014E-3,7.3874486E-5,1.79052E-4,2.5393325E-3,1.272386E-4,0E0,0E0,3.0110078E-4,0E0,0E0,7.1309786E-4,1.457762E-4,0E0,1.792358E-3,1.2832268E-3,0E0,0E0,0E0,0E0,0E0,0E0,0E0,0E0,0E0,0E0,0E0,5.20871E-4,7.716484E-4,0E0,0E0,1.9148155E-3,0E0,8.269516E-5,0E0,0E0,0E0,0E0,0E0,0E0,0E0,0E0,0E0],"parents":[2147483647,0,0,1,1,2,2,3,3,4,4,5,5,6,6,7,7,8,8,9,9,10,10,11,11,12,12,13,13,14,14,15,15,16,16,17,17,20,20,23,23,24,24,26,26,27,27,39,39,40,40,43,43,45,45],"right_children":[2,4,6,8,10,12,14,16,18,20,22,24,26,28,30,32,34,36,-1,-1,38,-1,-1,40,42,-1,44,46,-1,-1,-1,-1,-1,-1,-1,-1,-1,-1,-1,48,50,-1,-1,52,-1,54,-1,-1,-1,-1,-1,-1,-1,-1,-1],"split_conditions":[-5.325623E-1,3.335963E-1,1.0419177E0,-7.679481E-1,1.0899754E0,-1.6247857E-2,1.0827724E0,-1.1666602E0,-1.3388423E0,-7.720336E-1,-1.0657791E0,7.599767E-1,-2.5439474E-1,-3.9851162E-1,-4.782111E-1,-1.1775148E0,-8.087372E-1,-1.113929E0,1.844697E-3,-4.505098E-4,-1.3217239E0,-1.443392E-3,3.7885012E-4,-6.2392956E-1,-7.965464E-1,-3.6916335E-3,1.0337467E0,5.3465E-1,3.9178766E-3,-1.449734E-4,-1.3721526E-3,2.6610554E-3,4.3033957E-4,-4.0415563E-3,8.0964866E-4,-2.7077596E-4,-1.5819044E-3,-1.153924E-3,-3.6032689E-3,-3.1726226E-1,3.6607298E-1,-2.5254488E-3,-4.3350458E-4,-7.720336E-1,-1.867207E-3,-4.955876E-1,2.6788772E-3,1.1102305E-3,3.3312787E-3,1.4950144E-3,-9.3885366E-4,-6.263852E-4,1.7189013E-3,-1.0347575E-3,4.0602685E-5],"split_indices":[0,1,3,3,1,1,3,1,1,3,0,0,0,1,0,0,0,0,0,0,0,0,0,1,3,0,3,0,0,0,0,0,0,0,0,0,0,0,0,0,0,0,0,3,0,0,0,0,0,0,0,0,0,0,0],"split_type":[0,0,0,0,0,0,0,0,0,0,0,0,0,0,0,0,0,0,0,0,0,0,0,0,0,0,0,0,0,0,0,0,0,0,0,0,0,0,0,0,0,0,0,0,0,0,0,0,0,0,0,0,0,0,0],"sum_hessian":[6.7E1,2.3E1,4.4E1,1.4E1,9E0,3.2E1,1.2E1,7E0,7E0,7E0,2E0,1.5E1,1.7E1,1E1,2E0,2E0,5E0,3E0,4E0,1E0,6E0,1E0,1E0,1.3E1,2E0,2E0,1.5E1,3E0,7E0,1E0,1E0,1E0,1E0,4E0,1E0,2E0,1E0,2E0,4E0,8E0,5E0,1E0,1E0,1.3E1,2E0,2E0,1E0,3E0,5E0,4E0,1E0,5E0,8E0,1E0,1E0],"tree_param":{"num_deleted":"0","num_feature":"5","num_nodes":"55","size_leaf_vector":"1"}},{"base_weights":[3.1827583E-3,-3.524459E-3,1.1177263E-2,1.2882565E-2,-6.705165E-3,3.3774298E-2,1.691358E-3,2.0752788E-2,-1.7169387E-3,-1.281492E-2,3.3748192E-3,4.117345E-3,-1.640904E-3,2.990226E-3,-2.061862E-3,3.1981112E-3,7.1433483E-4,-4.1861036E-3,-2.106318E-2,5.7439944E-3,-1.3712228E-3,-5.9623094E-3,1.795584E-2,-1.905644E-2,9.157913E-3,-2.605125E-2,9.2208385E-4,1.0833415E-3,2.091839E-2,-2.9925893E-3,-3.1193495E-3,2.47823E-3,-1.2617708E-4,-6.2168244E-4,-2.982378E-3,-1.1370282E-3,1.9643249E-3,-9.6048956E-4,-3.7287355E-3,6.959975E-4,-5.576849E-4,8.4190565E-4,-1.4822683E-4,3.5990775E-4,2.7778507E-3,-1.8740038E-3,-3.7593E-6],"categories":[],"categories_nodes":[],"categories_segments":[],"categories_sizes":[],"default_left":[0,0,0,0,0,0,0,0,0,0,0,0,0,0,0,0,0,0,0,0,0,0,0,0,0,0,0,0,0,0,0,0,0,0,0,0,0,0,0,0,0,0,0,0,0,0,0],"id":8,"left_children":[1,3,5,7,9,11,13,15,-1,17,19,-1,-1,-1,21,-1,-1,23,25,27,-1,29,31,33,35,37,39,41,43,45,-1,-1,-1,-1,-1,-1,-1,-1,-1,-1,-1,-1,-1,-1,-1,-1,-1],"loss_changes":[4.007339E-3,2.2260023E-3,7.2308886E-3,2.0119217E-3,2.1987665E-3,4.388759E-3,2.7086975E-3,6.884148E-4,0E0,1.4776278E-3,6.4551376E-4,0E0,0E0,0E0,1.902852E-3,0E0,0E0,2.5556777E-3,1.2303251E-3,8.967318E-4,0E0,1.4052419E-3,5.560225E-4,6.4408174E-4,1.730064E-3,1.3049953E-3,1.5653427E-4,2.195057E-4,2.564605E-4,8.834348E-4,0E0,0E0,0E0,0E0,0E0,0E0,0E0,0E0,0E0,0E0,0E0,0E0,0E0,0E0,0E0,0E0,0E0],"parents":[2147483647,0,0,1,1,2,2,3,3,4,4,5,5,6,6,7,7,9,9,10,10,14,14,17,17,18,18,19,19,21,21,22,22,23,23,24,24,25,25,26,26,27,27,28,28,29,29],"right_children":[2,4,6,8,10,12,14,16,-1,18,20,-1,-1,-1,22,-1,-1,24,26,28,-1,30,32,34,36,38,40,42,44,46,-1,-1,-1,-1,-1,-1,-1,-1,-1,-1,-1,-1,-1,-1,-1,-1,-1],"split_conditions":[-4.239801E-2,-7.997031E-1,3.434405E-1,-4.7400975E-1,9.954794E-1,6.58268E-1,-1.5163459E0,-1.0636339E0,-1.7169387E-3,-5.5872905E-1,1.2125474E0,4.117345E-3,-1.640904E-3,2.990226E-3,2.3290608E0,3.1981112E-3,7.1433483E-4,-7.7330333E-1,-3.4606585E-1,8.227307E-1,-1.3712228E-3,1.0746787E0,3.186308E0,-1.1419036E0,-1.3388423E0,-8.995352E-1,-3.263639E-1,-1.1419036E0,-8.995352E-1,-1.2717751E0,-3.1193495E-3,2.47823E-3,-1.2617708E-4,-6.2168244E-4,-2.982378E-3,-1.1370282E-3,1.9643249E-3,-9.6048956E-4,-3.7287355E-3,6.959975E-4,-5.576849E-4,8.4190565E-4,-1.4822683E-4,3.5990775E-4,2.7778507E-3,-1.8740038E-3,-3.7593E-6],"split_indices":[0,2,0,0,2,1,1,0,0,1,1,0,0,0,0,0,0,2,0,1,0,2,0,0,1,0,0,0,0,1,0,0,0,0,0,0,0,0,0,0,0,0,0,0,0,0,0],"split_type":[0,0,0,0,0,0,0,0,0,0,0,0,0,0,0,0,0,0,0,0,0,0,0,0,0,0,0,0,0,0,0,0,0,0,0,0,0,0,0,0,0,0,0,0,0,0,0],"sum_hessian":[7.3E1,4E1,3.3E1,6E0,3.4E1,9E0,2.4E1,5E0,1E0,2.1E1,1.3E1,8E0,1E0,2E0,2.2E1,2E0,3E0,1.1E1,1E1,1.2E1,1E0,1.9E1,3E0,5E0,6E0,8E0,2E0,1E1,2E0,1.8E1,1E0,2E0,1E0,3E0,2E0,2E0,4E0,4E0,4E0,1E0,1E0,2E0,8E0,1E0,1E0,2E0,1.6E1],"tree_param":{"num_deleted":"0","num_feature":"5","num_nodes":"47","size_leaf_vector":"1"}},{"base_weights":[-1.8731753E-3,1.3140947E-2,-7.841361E-3,4.9588084E-3,2.7627945E-2,-1.8701864E-2,6.680345E-4,-9.237298E-3,1.676055E-2,3.2666982E-3,-1.3031364E-4,-2.9712155E-2,-1.1582919E-2,9.209053E-3,-1.4145363E-2,2.1092594E-3,-1.7807713E-2,1.8108163E-2,3.6636295E-4,-8.19089E-3,-3.5520762E-3,-1.5672594E-3,-2.0150714E-2,-5.409333E-3,2.605274E-2,6.4454377E-3,-2.2672594E-2,3.731042E-4,-2.286167E-2,6.791731E-4,2.127639E-3,-2.168873E-3,9.4023946E-4,-1.0163605E-2,2.9921234E-3,-3.0025274E-3,-8.220923E-3,1.0431617E-3,-8.036589E-3,2.9777102E-3,-1.8710793E-4,-1.19867924E-4,9.3930366E-4,-4.2321286E-3,-2.811406E-2,-1.4588237E-4,-2.784768E-3,-1.7572344E-4,-1.3488174E-3,1.1191388E-3,-3.905356E-4,-4.272908E-5,-1.9697726E-3,-1.2619942E-3,6.8645476E-4,-2.3695796E-3,1.7347605E-3,3.419131E-4,-3.5104526E-3],"categories":[],"categories_nodes":[],"categories_segments":[],"categories_sizes":[],"default_left":[0,0,0,0,0,0,0,0,0,0,0,0,0,0,0,0,0,0,0,0,0,0,0,0,0,0,0,0,0,0,0,0,0,0,0,0,0,0,0,0,0,0,0,0,0,0,0,0,0,0,0,0,0,0,0,0,0,0,0],"id":9,"left_children":[1,3,5,7,9,11,13,15,17,-1,-1,19,21,23,25,-1,27,29,-1,31,-1,33,35,37,39,41,43,-1,45,-1,-1,-1,-1,47,49,-1,51,-1,53,-1,-1,-1,-1,55,57,-1,-1,-1,-1,-1,-1,-1,-1,-1,-1,-1,-1,-1,-1],"loss_changes":[6.28593E-3,2.2336908E-3,4.6333093E-3,2.5003653E-3,1.0630633E-3,1.3802438E-3,3.799389E-3,2.195189E-3,7.4855285E-5,0E0,0E0,7.091216E-4,1.2556002E-3,4.8192507E-3,2.0775422E-3,0E0,7.384339E-4,1.0646763E-4,0E0,9.1634E-4,0E0,3.4396304E-4,6.955762E-4,5.416353E-4,9.917007E-4,1.01386395E-4,6.837626E-4,0E0,4.929488E-4,0E0,0E0,0E0,0E0,6.0140766E-5,3.830319E-4,0E0,4.3881324E-4,0E0,7.6960184E-4,0E0,0E0,0E0,0E0,1.6711275E-3,1.4426173E-3,0E0,0E0,0E0,0E0,0E0,0E0,0E0,0E0,0E0,0E0,0E0,0E0,0E0,0E0],"parents":[2147483647,0,0,1,1,2,2,3,3,4,4,5,5,6,6,7,7,8,8,11,11,12,12,13,13,14,14,16,16,17,17,19,19,21,21,22,22,23,23,24,24,25,25,26,26,28,28,33,33,34,34,36,36,38,38,43,43,44,44],"right_children":[2,4,6,8,10,12,14,16,18,-1,-1,20,22,24,26,-1,28,30,-1,32,-1,34,36,38,40,42,44,-1,46,-1,-1,-1,-1,48,50,-1,52,-1,54,-1,-1,-1,-1,56,58,-1,-1,-1,-1,-1,-1,-1,-1,-1,-1,-1,-1,-1,-1],"split_conditions":[-7.554808E-1,9.954794E-1,-7.475207E-1,-1.2717751E0,1.0746787E0,6.169208E-2,9.064504E-1,-1.8999367E0,-7.924609E-1,3.2666982E-3,-1.3031364E-4,-6.2392956E-1,7.352313E-1,1.0500886E0,-7.469036E-1,2.1092594E-3,-8.2610285E-1,-8.292302E-1,3.6636295E-4,-7.520347E-1,-3.5520762E-3,-8.0471736E-1,9.0623087E-1,-7.469036E-1,1.0746787E0,1.5077052E0,1.1122941E0,3.731042E-4,-1.8227007E0,6.791731E-4,2.127639E-3,-2.168873E-3,9.4023946E-4,2.6787195E-1,-7.997031E-1,-3.0025274E-3,1.3121706E0,1.0431617E-3,1.0482789E0,2.9777102E-3,-1.8710793E-4,-1.19867924E-4,9.3930366E-4,1.0899754E0,1.0541741E0,-1.4588237E-4,-2.784768E-3,-1.7572344E-4,-1.3488174E-3,1.1191388E-3,-3.905356E-4,-4.272908E-5,-1.9697726E-3,-1.2619942E-3,6.8645476E-4,-2.3695796E-3,1.7347605E-3,3.419131E-4,-3.5104526E-3],"split_indices":[1,2,3,1,2,1,1,1,3,0,0,1,1,3,2,0,2,3,0,1,0,3,1,2,2,1,1,0,1,0,0,0,0,1,2,0,1,0,2,0,0,0,0,1,3,0,0,0,0,0,0,0,0,0,0,0,0,0,0],"split_type":[0,0,0,0,0,0,0,0,0,0,0,0,0,0,0,0,0,0,0,0,0,0,0,0,0,0,0,0,0,0,0,0,0,0,0,0,0,0,0,0,0,0,0,0,0,0,0,0,0,0,0,0,0,0,0,0,0,0,0],"sum_hessian":[6.8E1,1.9E1,4.9E1,1.3E1,6E0,2.1E1,2.8E1,6E0,7E0,5E0,1E0,7E0,1.4E1,1.8E1,1E1,1E0,5E0,6E0,1E0,2E0,5E0,7E0,7E0,1E1,8E0,3E0,7E0,1E0,4E0,2E0,4E0,1E0,1E0,2E0,5E0,3E0,4E0,1E0,9E0,7E0,1E0,1E0,2E0,2E0,5E0,1E0,3E0,1E0,1E0,2E0,3E0,3E0,1E0,7E0,2E0,1E0,1E0,1E0,4E0],"tree_param":{"num_deleted":"0","num_feature":"5","num_nodes":"59","size_leaf_vector":"1"}},{"base_weights":[-3.7638973E-3,-1.3841809E-3,-2.1061353E-2,-3.8653621E-3,1.7397702E-2,-2.7814083E-2,1.6480237E-3,2.6226202E-3,-5.3551784E-3,3.1820815E-3,7.2865286E-3,-7.1434528E-3,-3.878777E-2,-1.1175454E-2,4.4959385E-4,2.7198642E-3,1.0946572E-3,-1.1271387E-3,-2.0103455E-4,-4.2845546E-3,-1.1278332E-3,-6.9090286E-3,-3.6113353E-3,-2.863115E-2,3.549331E-3,3.2484133E-4,5.671084E-5,1.6062781E-3,-1.0603734E-3,-4.127735E-3,-1.6693771E-4,2.2653183E-3,-1.5886012E-4],"categories":[],"categories_nodes":[],"categories_segments":[],"categories_sizes":[],"default_left":[0,0,0,0,0,0,0,0,0,0,0,0,0,0,0,0,0,0,0,0,0,0,0,0,0,0,0,0,0,0,0,0,0],"id":10,"left_children":[1,3,5,7,9,11,-1,-1,13,-1,15,17,19,21,23,25,-1,-1,-1,-1,-1,27,-1,29,31,-1,-1,-1,-1,-1,-1,-1,-1],"loss_changes":[3.058076E-3,3.1895326E-3,2.7399557E-3,2.8302998E-3,9.3481364E-4,1.5375856E-3,0E0,0E0,1.964576E-3,0E0,7.051192E-5,6.2097126E-5,7.4909534E-5,2.8359662E-3,2.8059012E-3,2.7091446E-6,0E0,0E0,0E0,0E0,0E0,2.3770512E-3,0E0,9.5398445E-4,2.7843069E-3,0E0,0E0,0E0,0E0,0E0,0E0,0E0,0E0],"parents":[2147483647,0,0,1,1,2,2,3,3,4,4,5,5,8,8,10,10,11,11,12,12,13,13,14,14,15,15,21,21,23,23,24,24],"right_children":[2,4,6,8,10,12,-1,-1,14,-1,16,18,20,22,24,26,-1,-1,-1,-1,-1,28,-1,30,32,-1,-1,-1,-1,-1,-1,-1,-1],"split_conditions":[1.0664304E0,1.0482789E0,1.7208047E0,-1.5163459E0,-3.4940848E-1,-2.719872E-1,1.6480237E-3,2.6226202E-3,-3.4606585E-1,3.1820815E-3,-1.9615558E-1,-1.0657791E0,1.2401255E0,-4.7400975E-1,-8.128883E-1,-4.846089E-1,1.0946572E-3,-1.1271387E-3,-2.0103455E-4,-4.2845546E-3,-1.1278332E-3,-8.210593E-1,-3.6113353E-3,-2.3593876E-1,7.041044E-3,3.2484133E-4,5.671084E-5,1.6062781E-3,-1.0603734E-3,-4.127735E-3,-1.6693771E-4,2.2653183E-3,-1.5886012E-4],"split_indices":[3,2,0,1,1,0,0,0,0,0,0,0,1,0,3,0,0,0,0,0,0,3,0,0,0,0,0,0,0,0,0,0,0],"split_type":[0,0,0,0,0,0,0,0,0,0,0,0,0,0,0,0,0,0,0,0,0,0,0,0,0,0,0,0,0,0,0,0,0],"sum_hessian":[7.4E1,6.6E1,8E0,5.9E1,7E0,7E0,1E0,2E0,5.7E1,2E0,5E0,3E0,4E0,2.8E1,2.9E1,3E0,2E0,1E0,2E0,3E0,1E0,2.5E1,3E0,2E0,2.7E1,2E0,1E0,3E0,2.2E1,1E0,1E0,5E0,2.2E1],"tree_param":{"num_deleted":"0","num_feature":"5","num_nodes":"33","size_leaf_vector":"1"}}]},"name":"gbtree"},"learner_model_param":{"base_score":"8.937079E-1","boost_from_average":"1","num_class":"0","num_feature":"5","num_target":"1"},"objective":{"name":"reg:squarederror","reg_loss_param":{"scale_pos_weight":"1"}}},"version":[3,0,2]}